{
  "type": "NeuralNetwork",
  "sizes": [
    7,
    3,
    8
  ],
  "layers": [
    {
      "weights": [],
      "biases": []
    },
    {
      "weights": [
        [
          1.7097188234329224,
          -0.2987406551837921,
          0.8847837448120117,
          2.5603885650634766,
          -3.5864522457122803,
          1.7122212648391724,
          -1.42154860496521
        ],
        [
          -2.2492101192474365,
          -3.0654144287109375,
          1.30831778049469,
          -0.4024254083633423,
          -0.6609680652618408,
          2.641845226287842,
          0.18478047847747803
        ],
        [
          2.692333459854126,
          -2.8233554363250732,
          3.4135265350341797,
          -3.1456010341644287,
          -0.807417631149292,
          -2.251420259475708,
          4.4983601570129395
        ]
      ],
      "biases": [
        0.11816702783107758,
        -0.18874649703502655,
        -0.3071123957633972
      ]
    },
    {
      "weights": [
        [
          -1.290488839149475,
          -3.8433852195739746,
          6.124414443969727
        ],
        [
          4.33388090133667,
          1.637265682220459,
          3.9931318759918213
        ],
        [
          1.2618811130523682,
          0.9954707622528076,
          1.3056663274765015
        ],
        [
          0.052992649376392365,
          -2.070321798324585,
          -5.540153980255127
        ],
        [
          0.07264960557222366,
          -1.9493659734725952,
          -5.57301139831543
        ],
        [
          4.536155700683594,
          3.997904062271118,
          -4.235508918762207
        ],
        [
          -4.908938884735107,
          5.000924110412598,
          -0.14343580603599548
        ],
        [
          -4.939488410949707,
          0.5729389190673828,
          4.092385292053223
        ]
      ],
      "biases": [
        -2.1196506023406982,
        -2.0237526893615723,
        2.8440499305725098,
        2.6557388305664062,
        2.640939950942993,
        -2.343693256378174,
        2.2428195476531982,
        -2.0626864433288574
      ]
    }
  ],
  "inputLookup": {
    "1": 4,
    "2": 0,
    "4": 5,
    "6": 1,
    "7": 6,
    "8": 3,
    "9": 2
  },
  "inputLookupLength": 7,
  "outputLookup": {
    "1": 3,
    "2": 0,
    "3": 7,
    "4": 6,
    "5": 4,
    "7": 1,
    "9": 2,
    "10": 5
  },
  "outputLookupLength": 8,
  "options": {
    "inputSize": 0,
    "outputSize": 0,
    "binaryThresh": 0.5
  },
  "trainOpts": {
    "activation": "sigmoid",
    "iterations": 10000,
    "errorThresh": 0.005,
    "log": true,
    "logPeriod": 100,
    "leakyReluAlpha": 0.01,
    "learningRate": 0.3,
    "momentum": 0.1,
    "callbackPeriod": 10,
    "timeout": "Infinity",
    "beta1": 0.9,
    "beta2": 0.999,
    "epsilon": 1e-8
  }
}